# H1 H2
64 64
# HiddenAct (0=sigmoid,1=tanh,2=relu)
1
# LearningRate
0.004
# Seed
123
# W(in->h1) rows=17 cols=64
-1.21311,-2.40067,1.12848,-1.24159,-0.675697,0.099005,-0.582934,-1.79617,0.76577,0.976126,-1.0684,-0.754789,0.0195018,-0.185789,-0.287315,-0.567483,-0.370229,-0.292905,-1.30933,0.297575,-0.768566,0.00108579,0.561058,-0.140266,0.0267282,1.07439,0.273114,-1.52899,-0.801988,0.62009,-0.248701,-0.948386,-0.7377,-0.525778,0.336229,-2.32185,0.72668,1.83718,0.215037,0.432458,-0.243491,0.391703,0.719471,-0.4632,0.300435,-0.948392,1.00897,-0.444906,-0.641919,0.257589,-1.00765,-1.6232,0.400806,0.626172,0.502028,-0.768645,0.043293,0.643617,-0.857992,0.686586,0.58032,-2.48003,-0.896229,1.29194,
-2.18816,-1.13369,1.05564,-0.824966,-0.309072,0.282955,-0.674556,-1.61863,-1.37883,-1.0707,0.210901,-0.696887,-0.685532,-0.228276,-1.79408,1.63637,0.293618,-0.799005,-0.694592,-0.101525,1.20056,0.106129,-0.197225,-0.336353,-0.0307292,0.443635,0.204281,0.722963,-0.188554,-0.904396,-0.125401,-0.804693,1.92924,0.0695426,0.0733278,-1.05418,-0.819378,1.43371,-1.6144,0.0124778,0.0547321,-0.218718,-0.527463,0.725027,-0.148075,-0.126335,0.49626,-0.0839977,0.307606,-0.000444953,-0.816196,-1.6759,0.778233,-0.433237,-0.825469,-0.628958,-0.333973,0.723442,1.44807,0.647622,1.10657,-1.54132,-0.888831,0.0138439,
0.310737,0.140844,0.277406,0.794264,0.222184,-0.989993,1.3942,-1.17981,0.174768,-0.25333,0.0498036,-0.704526,-0.256074,0.437438,2.57797,-0.602041,-0.808767,1.27749,1.29297,-0.621469,-1.44175,0.572382,-0.323211,-0.587653,0.760612,-0.221639,-0.672228,-1.25314,-1.29149,0.248462,1.28905,-0.977645,-0.917055,0.731661,-0.394176,0.248159,0.208858,0.672405,0.234552,1.0306,-0.711926,-0.527521,0.998439,-1.33152,-0.288884,-0.335232,-1.71082,1.89901,-0.767425,-0.204655,0.672154,-0.116456,0.775406,0.721603,2.2708,-0.645992,-0.249093,0.572896,-0.437833,-1.4941,0.113135,0.935722,0.215083,2.09715,
1.06108,0.904855,-1.57743,-0.967675,-0.52595,0.374627,0.340379,1.28964,0.921548,2.30814,0.723119,-0.00346779,-0.574848,-0.0249329,1.60968,0.104089,-0.961753,1.54613,-1.01708,0.183861,1.01785,0.446775,-0.00805561,1.28601,0.770957,0.43486,0.554292,0.672314,-0.380386,0.174634,-0.377605,0.146437,-1.02544,-1.63518,0.582126,1.43407,1.58438,0.258142,0.359796,2.70382,-1.89598,1.93168,-0.524913,1.50335,0.10007,-0.355363,-0.923247,0.14674,-0.203182,-0.59955,-0.926623,1.83239,1.4054,-0.597382,2.83439,0.764014,0.0840878,0.476735,-0.631938,-1.00203,-0.630397,-1.03419,2.05149,0.0829326,
-0.398029,1.6169,-0.0945818,3.17495,0.486057,0.658213,-0.14238,0.753655,1.82208,-0.719011,-1.37531,1.05983,0.167905,1.02969,-0.280097,0.530012,1.56007,-0.074373,2.30242,-0.398199,-2.2039,-0.732292,0.317419,1.86694,-0.48165,-2.24663,-0.348273,0.759712,0.120493,-0.83111,-1.84452,3.59752,0.782818,1.87664,-0.373471,1.50859,-0.895435,-2.0034,1.08909,-1.93559,0.90933,0.421915,-0.788037,1.13524,0.0495026,1.78145,0.548924,2.31122,2.62418,-0.411788,0.266871,1.49498,-1.74223,-0.625084,-1.74481,-0.669378,1.28092,-0.422394,1.48277,0.499402,0.0736021,3.12543,-1.20508,-1.58283,
-1.22772,0.619839,-0.545455,-0.0117286,-0.13153,-0.150708,-0.755886,-1.04422,-0.335837,1.90804,-0.744812,2.05253,-0.513654,-0.670749,-1.24582,-2.59359,-2.1695,0.260812,-1.98382,0.0506122,-0.733035,0.536467,0.606732,0.240069,-0.579334,-0.0400443,1.45464,0.91511,-0.0675286,-0.816171,-0.150754,-0.372103,0.547276,0.256662,0.266624,2.26786,-0.988669,-1.88311,1.60175,-0.863275,0.930515,-0.469482,0.613778,-2.495,1.21059,-0.229207,1.19677,0.623586,-2.71706,-1.74769,-2.34955,1.91178,1.58946,-1.07306,1.42439,-2.23015,1.14835,-1.13062,-0.983285,-0.878849,0.240968,-2.1415,0.0998714,-0.0995291,
0.0577159,2.1594,-1.37749,-0.41013,-0.56908,-0.308324,-0.0652215,-1.82527,0.32041,-1.93618,-0.324078,-1.26749,-2.65558,-0.437774,0.144189,-2.58582,2.31924,-1.71143,-0.394725,-0.51987,-2.07256,1.86576,1.1028,-1.02068,-0.354089,-1.6647,1.5765,0.0132899,-0.0321268,-0.41932,-1.26494,0.769471,-0.555685,-1.84626,-0.680734,1.47243,-0.0633036,0.40797,-1.95059,0.369345,0.0291012,1.45141,-0.146966,0.19236,-0.73689,0.367685,-2.28232,-1.6448,0.206696,1.77754,-0.00322792,-1.17864,1.68043,0.305722,-0.209405,0.457786,0.718603,-2.00717,-0.59686,-1.94391,0.290309,0.702792,0.264512,-0.793094,
0.599549,2.86515,2.24095,-1.82172,-1.85361,-1.22902,-2.68213,-1.30366,0.65493,-0.323242,0.0718354,-0.46811,0.903779,-0.255247,0.557668,-0.236711,3.69892,-0.676474,-1.29396,1.87449,0.251354,-2.18658,-1.33066,-0.617494,1.00739,0.511165,1.87575,-1.03737,1.18419,-0.627357,-0.21546,0.118119,-3.48808,0.741236,1.53827,-1.71599,2.82932,2.17665,1.30381,-2.134,-0.858398,1.20968,1.52484,-1.84053,-1.12643,1.89029,3.54699,-1.96944,2.41036,-1.73679,1.27105,1.70977,-0.920871,-0.965751,0.0726496,2.56028,2.90792,-0.301474,-0.494578,1.41333,0.146926,1.85153,-0.951338,-0.660538,
-1.56952,-2.2961,-1.60732,1.19335,-0.910141,-0.968971,1.14023,1.3973,-2.97861,-1.44893,0.757348,-2.46299,1.53087,2.81833,-3.30029,1.98558,0.429485,-3.54992,1.22453,1.84988,-1.73964,0.30988,-3.60542,0.590104,0.0648336,1.40315,0.773501,2.62199,1.93761,2.36956,0.0571153,-0.361319,-0.6399,-0.767877,0.576049,1.74215,-1.00571,0.0717671,1.8188,0.488486,0.873158,-1.14833,-2.97737,-3.17199,-1.57148,0.525847,0.743605,-1.41236,0.873269,0.759113,0.264986,1.86743,1.53319,0.00441334,-1.23332,0.437806,-1.56864,0.690713,0.733054,-2.01382,-3.14265,0.780118,-0.090924,-0.925476,
-2.49434,2.45506,2.22904,0.485343,-0.785487,-0.425113,-1.08839,-0.226748,-2.74578,-1.49018,-1.05867,1.0201,-0.481632,-0.623587,2.07156,0.184807,-1.65551,-1.15055,1.06454,0.525614,1.81171,1.46565,-3.36042,-0.691674,-2.09371,-0.299762,0.533918,-0.553981,-0.824998,2.2591,0.781498,0.249538,2.64491,-0.187908,-0.142684,0.653432,0.799039,0.86403,-0.671642,1.98682,-1.76243,0.403845,1.7153,0.596089,0.366463,1.11323,3.29394,1.71554,-0.0901838,1.65589,-0.955603,-0.192554,-2.92963,-1.61883,0.509604,0.348473,-1.42359,-0.170099,-1.37481,0.268065,-2.38899,2.23658,0.0853028,0.819246,
-0.172104,-1.20201,0.0608937,-3.26335,-1.69348,2.73436,-1.0519,2.8685,1.01504,0.821993,-1.20625,-0.108778,1.76168,0.337314,-3.14658,-0.832222,0.71878,0.581414,-0.370723,-1.75824,-0.22619,0.432443,0.551913,1.34574,-1.01226,1.71535,-1.27116,-0.487615,-0.557233,-0.0788639,1.15006,1.00347,-0.90105,-0.0699857,-0.582372,-1.00434,1.67194,0.459253,1.40996,1.22398,1.43876,-0.0334038,0.992154,1.00314,0.929916,-0.0376585,-2.76248,-0.469283,0.241125,0.144516,-0.402703,0.273993,0.0707783,-2.28056,-1.45624,-1.44009,-1.24167,0.24271,0.660585,-0.894846,-3.53239,-0.54513,1.29016,2.32287,
0.907087,-1.27965,2.54396,-0.613346,0.232748,-3.37162,-0.842279,1.86426,4.40154,1.09572,0.232585,-1.5446,1.85559,0.147519,0.604954,2.51348,0.576448,-0.81963,-0.544961,-1.49859,0.781962,1.48697,-0.0722516,-2.01979,-0.603054,-1.52802,-0.182844,-0.714745,1.19201,1.63881,2.85921,1.43241,-1.44049,0.910007,-1.8459,-1.73565,-0.340129,-0.778469,-1.24007,0.811237,-0.96657,-0.392082,-0.596089,-0.685174,2.04207,0.85323,-2.32432,0.420603,-0.678227,0.486808,-1.2114,0.444011,3.99359,1.27412,-0.225654,2.02965,-1.5754,0.857739,-0.6962,1.13996,0.28381,-1.73985,1.91202,-0.750613,
-0.278828,0.472557,-3.33237,2.27065,-0.488149,-1.3181,0.358767,-1.46748,1.98343,-0.970836,-3.58393,1.27951,0.319346,-0.89351,0.788527,0.88625,-0.0221407,-1.99275,1.06739,-1.53661,-4.46425,1.16156,0.978613,-1.01562,1.12142,0.176784,-0.86353,-1.99259,-0.849937,-3.3403,0.665107,2.43095,-0.12555,1.53937,0.707185,-1.2486,-0.425608,-0.368852,-3.58582,-1.88385,3.45202,-0.835837,0.846517,-0.11509,1.54208,-0.78446,-0.710105,4.05909,-0.190627,-1.77818,-2.594,-2.9159,-0.709915,1.55603,-1.4061,0.304607,0.351229,1.32333,3.01074,2.64533,0.785478,0.185327,-0.778735,0.872249,
-0.354304,-0.77193,-1.17368,1.23249,1.28247,1.69848,0.842684,2.90872,-0.866288,1.2229,-3.14116,-0.669448,0.195888,1.14622,1.15342,-0.0836045,0.221783,-0.119479,-1.38457,0.617766,-0.0669016,-0.85384,0.959491,-0.459537,-1.87026,-0.781654,0.53424,-2.01292,-1.37207,-1.22472,-0.559358,-1.48589,-0.155197,0.103813,-1.12142,-1.57727,0.554527,0.886187,2.04181,1.47529,2.94116,1.93472,-0.334586,0.410251,-0.0873923,-0.662172,-1.72677,-1.8384,1.14146,1.7864,-0.729176,-0.975488,-2.2193,-1.32163,-0.658754,-1.27511,-0.575738,0.316284,-0.015056,0.719058,-0.0319878,-0.785784,-0.383577,-0.411455,
4.01815,-2.70121,2.82061,2.77957,-0.175023,-2.88186,-0.139347,1.60203,-2.79062,1.49391,-0.764906,-0.89616,1.2196,-0.165932,0.564315,-0.722153,-0.400674,1.33624,-0.138522,0.841852,-1.45758,-2.31011,3.16479,3.31187,-2.15336,-1.74292,0.811694,3.74232,1.31247,0.0180387,-2.48266,0.456067,1.88723,-0.975855,-2.57098,0.359054,-0.133364,-0.868724,-0.290448,-1.1159,-1.03372,-1.23396,1.26817,4.91471,1.63345,0.53553,1.97642,0.686138,0.51784,2.14815,-0.0222085,1.02006,-1.58304,1.12978,-0.59319,0.462359,-1.80822,-1.72399,-2.17565,-0.340905,-0.267883,-2.69615,-0.195501,-1.47135,
1.34885,-2.72243,-0.107976,-0.428953,-0.393832,1.65896,0.197785,0.327064,-1.98353,-0.328666,2.20524,0.779459,-0.43057,-1.16599,-0.33687,0.778131,-0.403946,-0.0906601,0.867266,-0.806274,-0.661096,-0.774026,-0.686401,-1.4909,1.68863,0.610742,0.0322626,-1.70334,1.76541,-1.88473,-0.926682,1.42695,0.237821,0.372762,-1.02532,-1.59326,1.91154,-0.555246,2.2927,-1.77983,-1.21342,0.0625158,0.547686,1.71304,-3.55178,1.19182,-1.52401,0.609772,-1.33763,0.826066,2.18716,0.585461,-1.38812,1.13789,1.05097,1.6567,0.126156,-0.792855,-1.76374,3.07658,-0.0278889,2.74518,1.15263,-2.65391,
2.10608,1.56707,-0.964122,0.334267,1.97912,0.353036,1.14629,-1.81942,0.397534,-1.38454,2.68812,0.682189,-0.181551,0.0591321,-0.486411,-0.698964,-1.1717,2.50211,0.990616,0.995062,2.00202,-1.93534,0.789262,0.789975,1.44074,0.939644,-2.2259,0.109078,0.0298184,0.288941,-0.314845,-1.58439,-0.368734,0.011124,1.83543,1.10691,-1.7623,-0.451938,-1.84245,-0.605426,0.274096,-1.08797,-0.730629,0.0419718,0.706743,-1.89656,1.03388,0.439404,-0.774119,-1.72965,1.7305,-0.645558,0.0171956,0.959896,-0.122372,0.341232,2.30112,1.0295,2.30992,-0.763982,1.90709,-0.252644,-1.14278,0.27132,
# W(h1->h2) rows=65 cols=64
-0.861427,0.861001,0.822645,0.469308,-0.662032,0.38779,-0.55726,-1.20407,-0.182198,-0.712043,-0.592272,-0.734466,-1.24229,0.149205,0.686651,-0.451678,-0.365572,-0.0958481,-0.936003,0.358243,0.419836,-0.951075,-0.961288,0.410143,-0.302009,-0.0179212,-0.404096,-0.630646,1.04869,0.470137,-0.784919,0.0927436,0.125243,0.077592,-0.32655,0.125613,0.67399,0.292591,0.429976,0.926047,-0.610921,-1.21458,0.312038,-0.699797,-0.353218,0.674117,-0.571139,-0.13434,0.142024,0.980222,-0.494251,0.979673,1.10257,1.05317,-0.37029,-0.163207,1.4707,-0.626954,0.508496,0.00114051,1.31573,0.236551,0.295703,0.983667,
-0.10102,-0.824319,0.803781,0.0142162,0.0733817,-0.107728,0.0854808,-0.684885,-0.202152,-0.854114,-0.595706,-1.37574,0.933041,-0.974259,0.323353,-0.429366,-1.66144,-1.24925,-0.598985,0.239459,0.716987,0.267875,0.988889,-0.655349,0.132281,0.666405,0.256087,-0.301083,-0.598703,-0.127504,0.945161,0.672481,-1.02367,-0.412076,1.17418,-0.613087,0.853631,-0.316752,-0.335591,-0.253795,-0.118585,-0.610711,-0.336715,0.539101,-0.228717,1.20746,0.600809,-0.768593,-0.70452,0.3719,-0.581258,1.6114,-0.346054,-0.703339,0.870628,-0.125249,0.245176,0.427967,-0.314138,0.453976,0.491769,0.215736,1.05483,-1.3589,
-0.722589,0.872045,-0.814441,-0.577719,-0.500652,0.359042,0.926517,0.112903,1.35639,-0.36315,-0.321492,0.0356683,0.723972,0.973552,0.626288,0.556235,0.460935,-0.170452,-0.799792,0.217703,-0.427666,0.261202,1.26897,0.250421,-0.708004,-0.115239,-0.230184,-0.571231,-0.39332,1.55322,-0.056174,-0.548818,-0.808725,-0.779788,-0.808624,0.090979,0.000469865,0.188514,0.35383,-0.104145,0.0764475,1.1072,0.783598,-0.336402,0.266579,-0.489034,-0.348905,0.408963,1.189,-0.362941,-0.932821,0.776756,0.394365,-0.693221,-1.15145,0.265247,0.825242,0.263684,0.275131,-0.139406,0.219017,0.849118,1.02905,0.828934,
-0.0661329,0.659535,0.0342222,0.94122,-1.29669,0.444805,-0.309434,0.960847,0.397806,0.329348,0.773698,-0.296246,0.323869,0.109062,0.070723,-0.788939,0.09632,-0.521702,-1.03919,0.797078,-0.324336,-0.417053,0.544198,1.46888,-0.0970719,1.08372,0.871547,0.366347,-0.143933,-1.17828,-0.689259,-0.79257,0.466468,-0.532721,0.0479716,-1.14395,-0.630184,0.24763,0.273062,1.41487,0.529045,-0.903178,0.838804,0.259493,-1.23017,0.484169,-0.664033,-0.0278693,0.919377,0.186704,1.45475,-0.0695615,0.142602,-0.0897243,0.706805,-0.0098212,-0.139308,-0.724455,-1.00955,0.613042,0.872253,-0.845878,0.674013,0.518879,
0.581469,0.167035,0.649036,-0.388657,-0.282998,0.494273,0.011965,-0.0726189,-0.37628,-0.604687,-0.100804,-0.104724,0.124205,0.104373,0.168477,-0.058925,0.215208,0.134188,-0.438612,0.0476742,-0.0376322,-0.982639,-0.149441,-0.587521,-0.120399,0.0287265,0.799072,-0.0628031,-0.010724,-0.424013,-0.255787,0.0947921,0.0121261,-0.0146655,-0.213869,-0.424753,-0.248785,-0.107872,-0.928295,0.224662,-0.171496,-0.010594,-0.213619,0.142918,0.248165,0.0421359,-0.00755889,-0.893876,-0.326168,-0.0549938,-0.344859,0.375204,-0.26987,0.291828,1.12142,-0.0768234,0.506122,0.0562336,1.042,-0.505589,0.164506,-0.0476882,-0.4732,-0.394776,
1.16222,-0.579455,-0.544579,0.0478271,0.33984,-0.486875,0.816054,-0.746233,-1.82402,1.02313,-0.286399,-0.369501,-0.27589,-0.584754,-0.229203,-1.12336,-0.17341,0.883391,0.796828,-0.821879,0.00519896,0.673507,0.405939,0.301507,0.108125,-0.584811,-0.856161,-0.57234,0.00046027,0.574283,-0.069818,-0.278387,0.89194,-0.435933,-0.0380807,0.441472,0.588496,-0.157433,0.779498,-1.42756,-0.411029,-0.65734,0.961811,-0.971347,0.0358172,-0.420551,0.116906,0.3597,0.36725,-1.20884,0.539652,-0.256876,0.223929,0.436212,0.442001,-0.302071,0.474883,0.247744,-0.997739,0.459149,-0.735746,0.299209,-0.405774,-0.65996,
0.316308,-0.0757809,0.269385,-0.401798,0.152185,0.0368233,0.329911,-0.123821,-0.0982303,-0.0854656,-0.203325,0.471685,-0.151001,-0.602962,0.0643626,-0.125622,0.59022,0.77897,0.0621352,-0.204803,0.192513,-0.711176,-0.438828,-0.61861,-0.137726,-0.336512,0.712534,-0.105588,0.130431,-0.545621,-0.412395,0.144955,0.125448,1.05949,0.0346552,-0.0623246,-0.428729,0.262301,-0.619256,0.0577698,-0.105711,0.120106,-0.481533,0.272918,-0.323834,0.11985,-0.268049,-0.696873,-0.400193,-0.187637,-0.229986,-0.0729397,-0.59092,0.185744,0.381152,-0.30421,-0.0497527,0.267988,0.6891,0.107728,0.41008,-0.0410388,-0.466049,-0.139379,
0.372375,1.28152,0.00670926,1.10126,-0.297532,-0.376519,0.441801,-0.331704,-0.383624,0.203477,-0.251521,0.899172,-0.473368,0.710793,0.236946,0.329469,1.27699,0.176779,0.45274,0.0666649,0.0241652,0.0992543,0.0789161,0.621483,-0.195496,-0.619422,-0.777676,0.0148301,0.252269,-0.310701,0.286018,-1.01683,1.23361,0.309477,0.179517,0.827891,-2.0732,-0.976097,-0.40922,0.19131,-0.0965753,0.360478,-0.119652,-0.715716,0.948289,-0.754377,-0.733071,0.210462,0.293856,0.17306,0.348383,-1.9969,0.28803,0.533264,0.154556,0.314603,-0.321968,-0.28697,0.811594,-0.481794,0.714236,-0.855226,0.364692,-0.573167,
0.324839,-0.0914496,2.16767,0.236432,0.647214,-1.4401,-0.842713,-0.84188,-0.400257,-0.327485,-0.420566,-1.63478,-0.615529,0.661031,-0.696704,1.52286,0.0886514,0.190341,0.113755,0.389236,0.875567,-0.184426,0.315466,-1.02331,1.005,-0.548778,-0.497035,-0.583617,0.506976,0.126328,0.985303,-0.300918,-1.16477,-0.887994,0.639593,-1.40499,0.0351819,0.332468,-0.76216,-0.0802018,-0.415439,-0.160869,-0.466646,-0.959299,1.23138,-0.438957,1.1976,0.294534,-1.17411,-0.502779,-0.220806,0.037805,-0.925672,0.24077,0.406479,-1.08848,1.66023,-0.988422,0.477404,-0.354357,0.0230713,0.274526,0.829963,0.403545,
0.211337,0.758017,-0.0257529,-0.00911284,0.67943,-0.592554,0.533898,-0.117001,-0.259152,-0.954372,-1.45132,-0.643422,-0.3502,0.214015,0.294812,-0.276503,0.856573,0.108314,-0.102204,-0.378638,1.0148,-0.372554,0.103273,0.757086,-0.200491,-0.440762,-0.871213,-0.596287,-0.515563,-0.441612,-0.102954,-0.2974,0.0790478,0.0903805,0.212088,-0.30547,-0.0595328,-0.970183,-0.0413548,-0.18082,-0.436704,0.738146,-0.224325,0.0557758,0.187967,0.842709,-0.0469681,0.600925,0.00863023,0.908168,0.258633,-0.176926,0.324947,0.530308,-0.53307,0.499692,0.865659,-0.882677,0.0215297,-0.197742,0.5766,0.14914,0.476087,-0.321173,
-0.274233,-0.744031,-0.394488,-0.732909,-0.00660295,0.386588,0.443826,0.135955,-0.585411,-0.369602,-0.84441,-0.785356,-0.719707,-1.0165,-0.107429,0.216492,0.0950298,0.419826,-0.151831,0.0405117,0.614214,-0.437463,-0.455355,-0.566934,-0.173089,-0.0402389,0.0770482,-1.60238,0.589219,-1.13758,-0.611605,1.004,-0.567093,0.77349,-0.354325,0.45743,0.900772,0.553222,0.308358,-1.09979,1.03037,0.400514,0.409367,-0.113711,-1.42188,-0.885775,0.477147,-0.695285,-0.729276,0.128961,-1.13538,0.691068,0.122292,0.456355,-0.738967,-1.3195,-0.522651,-0.915134,0.234092,1.07042,-0.909323,0.0665929,0.216023,-0.0288218,
0.49046,-0.00231218,-0.304047,0.725929,0.181339,0.870891,-0.36801,-0.114684,-0.701317,0.0411476,-0.251526,-0.664129,0.133798,-0.377328,-0.790197,-0.938965,-0.274926,-0.378676,0.484517,-0.219993,0.688393,-0.0451428,-0.402381,-0.172664,-0.851448,0.186488,1.27442,-0.489667,0.109049,0.486771,0.32727,0.15634,-0.381736,-0.31561,0.24633,-0.555884,0.500651,-0.459262,0.174656,0.256766,-0.755053,-0.808212,0.347971,0.214804,0.154143,0.302096,0.523159,0.291665,-0.359618,0.879918,0.10646,0.0733939,0.293578,0.440705,-0.0235712,0.109508,-0.0676461,-0.671403,-0.108676,-0.244479,0.260278,-0.153219,-0.706453,-0.838415,
-0.496901,0.737021,-0.231983,0.807862,-0.503357,-0.607356,-0.119993,-0.163989,0.241661,0.29089,0.385843,0.172416,-0.0849223,0.448532,-0.0659673,0.414106,0.207861,-0.0490616,-0.765471,0.541707,-0.426603,-0.791902,-0.194044,0.282794,0.396066,0.279873,-0.483754,-0.0406026,0.571916,-0.0287723,0.458536,-0.168651,-0.0361143,-0.715455,-0.200462,0.182271,-0.161246,0.203146,-0.0176567,0.693517,-0.183275,0.325309,0.265302,-1.12756,0.40861,-0.63037,-0.859931,0.153477,-0.41042,0.257888,0.72824,-0.652068,-0.225602,-0.0415059,-0.397351,-0.183025,-0.157012,0.0211309,0.026897,0.0897375,0.535589,0.0349026,0.286993,0.50662,
-0.0359055,0.03574,0.270176,-0.0356258,-0.256243,-0.411184,0.821403,0.639848,0.00531868,0.284774,0.154811,0.754266,-0.134491,-0.0177682,0.562615,-0.161152,0.527903,0.251492,-0.150985,0.175738,-0.538031,-0.241075,0.670919,-0.297743,0.104036,0.196533,-0.0865075,0.194374,-0.32498,-0.805859,-0.213871,0.013276,0.292568,0.0215182,-0.352342,0.420135,-0.651035,0.192312,-0.32665,-0.276887,0.204132,0.547761,-0.107509,-0.348267,0.133446,-0.118271,-0.388453,-0.0527733,-0.330326,-0.958789,0.604372,-0.398435,-0.641099,-0.358304,0.255597,-0.134431,-0.229823,0.277102,-0.00102021,-0.124159,-0.222751,0.0665976,0.387688,-0.188501,
0.228274,-0.761793,0.416016,-0.529383,0.138939,0.0989031,0.360373,-1.77623,0.171243,-1.06908,-1.60066,-0.278506,1.33314,0.230391,0.322238,-0.206516,0.502999,-0.161639,-0.502739,-0.0250241,1.05446,-0.790847,0.179782,-0.675704,-0.0134948,0.0420375,-0.07949,0.286055,-0.721267,0.143244,0.47946,-0.516538,-0.949101,0.683301,0.804038,-0.579261,-0.330367,0.300573,-0.520687,0.543381,-0.244025,-0.60634,-0.375861,0.453589,-0.230631,0.0882632,-0.372233,-0.392769,0.086099,0.704604,-0.893557,1.1132,0.225817,-0.22132,-0.407827,0.420208,0.0347398,0.379573,0.322049,-0.413462,-0.170279,0.152409,0.510787,-0.850304,
-0.410309,-1.10461,0.105119,0.695774,-1.04062,1.58465,-0.267112,-0.484759,-0.0228896,0.780916,0.680059,0.463641,-0.426065,0.161537,0.10899,0.652121,0.423319,0.581102,-0.678276,0.0852775,-0.122922,-0.545673,-0.0360731,-0.0513241,-0.469273,0.211803,-0.303149,-0.029313,0.523969,0.253213,-0.181035,-0.451936,0.104103,-0.0518793,-0.511364,0.587781,-0.303828,0.82754,-0.973536,0.395643,1.05016,0.0346294,-0.0364212,-1.20343,-0.116472,-0.361371,-0.921972,-0.00849537,0.330188,-0.179273,0.405893,-0.702416,-0.583947,0.179345,0.932202,0.740504,-0.322596,0.545165,0.610918,-0.0393997,0.547786,-0.511129,-0.234982,0.219949,
0.0787638,-0.0940102,1.16855,-0.203088,-0.299854,-0.448235,0.140714,0.464443,-0.118889,0.558397,0.262023,-0.0926506,-0.218248,0.0480506,-0.428898,0.34161,0.361529,-0.317154,0.156637,0.485028,0.407444,0.16667,0.679695,-0.273335,1.03286,0.201657,-1.10092,0.160602,-0.351021,0.169523,1.13218,0.470049,-0.746261,-1.0709,0.041017,0.196647,0.206336,0.887667,-0.75608,-0.569992,-0.0449038,0.502099,-0.172856,0.808694,0.627062,-0.392171,-0.321527,0.552394,0.0912313,-1.14205,0.0749162,0.57419,-0.391024,-1.05429,-0.0569855,0.170016,-0.943363,0.541947,0.0288804,0.145402,-0.0378413,-0.471516,0.915483,0.133491,
-0.540807,0.529404,-0.262944,-0.0596369,-0.443439,-0.224916,0.200639,-0.510388,-0.770643,-1.66719,-0.595987,-0.911693,0.226984,0.299854,0.621783,0.0418948,0.554158,-0.136207,-0.148986,-0.428616,0.429047,-0.942662,-0.101784,0.363881,-0.496833,0.113825,0.853284,-0.843276,-0.396991,0.27555,-0.834348,-0.0720333,-0.157912,0.394878,0.113468,-0.417619,0.596262,-0.668598,0.110675,0.379536,0.0479964,-0.420968,-0.0452909,0.579717,0.0422521,-0.231609,0.0193857,0.0397369,-0.565398,1.14147,0.0901773,0.416622,0.122201,0.204819,0.281419,-1.3693,0.963301,-0.690017,0.606638,0.135925,-0.297888,0.606366,-0.39134,-0.115366,
-0.294357,-0.18106,-0.488968,0.377395,-0.668016,0.279714,-0.0776982,-0.165323,-0.326841,0.258961,0.134217,0.601182,0.269089,0.149349,-0.319992,-0.139084,0.145211,0.270144,0.155905,0.127499,-0.092573,-0.237483,0.437675,-0.628951,-0.00939532,0.365709,0.65711,0.417496,0.158738,-0.485309,-0.0762047,-0.336697,-0.0150098,0.696446,0.402825,-0.0731401,-0.391923,0.278357,0.161484,1.03617,-0.432295,-0.400792,0.478858,-0.402595,-0.143274,-0.668058,-0.957345,-1.36349,-0.369765,-0.184349,-0.360949,-0.155838,-0.370512,0.397867,0.124484,-0.105031,-0.459073,0.854001,-0.324999,0.358101,0.164088,-0.630297,0.102113,-0.43445,
-0.654187,-0.605538,-0.0863319,-0.297183,-0.628848,-0.158945,0.406219,-0.136167,0.690586,0.150766,0.550192,0.244652,1.21121,-0.580549,1.34999,-0.500421,-0.00575622,-0.0271517,-0.538643,0.256998,-0.526324,-0.211125,-0.235686,0.329996,-0.264178,-0.090028,0.078993,-0.460334,-0.382227,-0.563869,-0.756002,0.317557,-0.0382919,-0.257074,-0.323016,0.266563,-0.764033,0.0694991,-0.0792908,-0.251153,0.627429,0.251502,-0.731293,0.47793,-0.754356,-0.186125,-0.364074,0.489693,0.00129066,-0.18185,0.305389,0.022837,-0.24714,0.00684797,-0.112992,0.378698,0.19049,0.517812,-0.393747,0.133158,0.0916169,0.447833,0.586403,-0.370749,
-0.0358586,-0.280045,-1.58884,-0.688199,0.0600986,0.211107,0.834671,-0.844572,0.118897,-0.636379,-1.23826,-0.59195,0.310671,-0.962683,-0.289478,-0.0354032,0.291445,-0.351451,-1.36287,0.20886,0.861048,-1.09371,1.14431,-0.429332,-0.961345,-0.462105,-0.138569,-1.23892,-1.34687,0.0736533,-0.308992,0.744858,-0.14614,0.506197,-0.266498,-0.0365793,0.818739,-0.107924,0.846421,-0.964214,-0.384541,-0.449338,-0.558592,0.636278,0.0432058,-0.860724,0.870729,0.234789,-1.33582,0.737319,0.700489,0.851972,-0.720023,1.42843,-0.238772,0.0960894,0.572859,-0.472498,0.260708,-0.587939,-0.614217,1.29485,-0.709039,0.403602,
0.89666,-0.677075,-0.332905,-0.574373,0.890589,0.0928142,-0.0356397,0.223137,-0.0947244,0.394053,0.282979,0.3971,0.0332041,0.182528,-0.498433,0.15398,0.116471,-0.0449835,1.14682,-0.354018,0.975334,0.402953,0.36764,-0.544975,0.0654849,-0.552619,0.0870269,0.654521,-0.0308054,0.690533,0.914362,-0.183725,1.07028,0.849343,0.894422,-0.147597,0.134849,-0.370994,0.152103,-0.437848,-0.0460239,-0.0335164,-0.0435621,-0.477912,-0.299045,0.0786652,0.647365,-0.614248,0.255585,-0.248508,-0.13006,-0.365691,-0.062519,-0.490137,-0.256029,1.09276,-0.937158,0.736753,0.032833,-0.289268,0.276396,-0.744564,-0.56456,-0.34419,
0.459661,0.462064,0.706227,0.198166,0.123462,-0.863725,-0.45571,-0.0784431,-0.336384,-1.23564,-1.17458,-1.26563,-0.334197,0.337941,0.0179329,-1.2772,0.393737,0.344524,0.861688,0.383636,-0.0544325,0.715008,-0.660822,0.212408,-0.471053,-0.689781,-0.53602,0.0822815,-0.467359,0.563178,-0.950331,-0.648651,0.629341,-0.361371,0.261015,-0.194285,0.690502,-0.581484,0.704367,-0.187047,-1.07401,-1.28784,-0.542477,0.765193,0.976589,1.02488,0.301864,0.0483732,-0.586441,0.0736893,-0.649386,0.490472,1.08973,1.26289,0.0228797,-0.759623,1.19965,-0.555324,0.39137,0.543224,-0.924643,0.098869,0.622947,0.122562,
-0.969049,0.660935,-0.74705,1.17373,-0.795221,0.228149,0.202953,-0.188179,-0.057441,0.2231,-0.0639562,-0.593681,0.0276352,-0.140513,0.0630509,-0.686339,0.0919263,-0.573068,-0.105922,0.0218018,0.671257,-0.0240153,0.483467,0.365658,-0.209897,0.0295399,0.00347556,-0.446838,-0.19409,-0.58648,-1.01061,-0.80754,0.109793,-0.159923,-0.289099,-0.233924,-0.0219593,-0.603441,0.596614,0.452381,-0.570148,-0.341209,0.329578,-0.090577,0.0134729,0.0208434,-0.0997289,1.06989,-0.923315,0.0922335,1.05113,-0.313806,0.41147,0.520409,-0.363771,0.0515098,0.435046,-0.914156,-0.0899839,0.223765,-0.461777,0.26576,0.564325,0.0710254,
-0.135913,-0.631756,0.196865,0.295179,-0.257147,-0.57404,-0.681076,-0.712119,-0.125809,-0.595642,0.217824,-0.836469,-0.42953,-0.567519,-0.512964,0.627749,-0.35214,0.47869,-0.260436,-0.140208,0.0912307,-0.644205,-0.914705,-0.543846,0.397878,0.618589,0.101504,-0.187178,0.805152,-0.639859,0.0626845,0.855627,-0.690136,-0.146837,0.495765,0.131447,0.78115,0.631205,-0.345701,-0.609874,0.539527,-0.0534561,0.406574,0.443674,-0.796819,-0.383759,-0.370857,-0.378976,-0.169305,0.228294,0.360529,0.250821,-0.590933,-0.00970401,-0.30201,-0.113623,-0.341534,-0.00404808,-0.365629,0.803795,0.190897,-0.240055,-0.860436,0.609925,
-0.100181,-0.467072,-0.573792,0.0116422,0.338626,-0.526835,-0.120238,-0.293279,-0.210628,0.384016,1.10334,0.38555,0.299724,-0.241872,0.0423576,0.108732,0.600315,0.782038,0.29996,-0.658096,-0.240812,-0.18494,-0.757034,-0.412958,0.0365923,0.0198613,-0.214506,-0.23403,0.540613,-0.0918917,-0.0832373,0.851394,-0.414356,0.0527383,-0.0919967,0.7895,0.828945,0.499244,0.0526056,-0.691957,0.0957928,0.22779,0.244269,-0.504989,-0.718891,-0.190633,0.37581,0.523622,-0.425017,0.4352,0.181129,-0.706246,-0.422477,-0.0755062,-0.734121,-0.6556,-0.155125,0.351981,-0.41144,1.0797,-0.63253,0.594981,-0.979959,0.127673,
-0.152119,-0.608545,0.23265,0.143449,0.420623,-0.0392223,0.296273,0.24291,1.17861,0.703103,-0.0226319,0.445777,0.295491,-0.442967,0.303678,-0.221063,-0.46655,-0.503687,0.173585,0.440006,-0.0132369,0.756375,0.410134,0.482896,0.287023,-0.311765,-0.61512,-0.134516,-0.392289,-0.186151,0.171197,0.0876824,-0.256769,-0.324752,-0.0810055,0.0762426,-0.320709,0.279412,0.306311,-0.773442,0.405828,0.375403,-0.428256,0.416394,-0.19148,0.416615,0.288731,0.875823,0.872738,-0.0356576,0.107378,0.486768,0.0292178,-0.212725,-0.712256,0.932258,-0.250352,-0.0998788,-0.457018,-0.255935,0.156948,0.0686959,0.633138,0.00887315,
-0.11799,0.799348,-0.909194,-0.17847,-0.929341,0.0721711,0.700347,1.53124,0.472373,0.472818,0.188831,0.239057,-0.440956,-0.393059,-0.304508,-0.547986,0.761105,-0.103347,-1.79733,0.0348384,-0.662661,-0.417525,0.305982,0.140358,-0.18397,-0.378952,0.616759,-0.822718,-0.734016,-0.776465,-0.512567,-0.133546,0.79803,0.604614,-0.866563,-0.751389,0.0241051,-0.481931,0.446037,0.397395,0.829108,0.0963333,-1.40311,0.105458,-0.345313,-0.597695,-0.165612,0.643021,-0.866962,-0.638381,0.304931,-0.130021,-0.244069,0.312567,-0.679857,-0.538885,-0.495989,-0.824696,0.42933,0.618309,0.738478,-0.329857,-0.118852,-0.391339,
-0.829484,0.125641,0.150325,0.160252,-0.667972,0.352485,-0.0569261,0.217098,0.550821,0.313798,0.412301,0.0144692,-0.352107,-0.18852,0.182166,0.0111145,-0.735412,-0.0918434,-0.0920003,0.785883,-0.733521,-0.166287,0.0898093,0.336819,-0.376386,0.26821,-0.340899,-0.175983,0.294887,-0.3905,-0.389706,0.182423,0.485798,-0.837171,-0.0959663,0.135454,-0.246109,0.847995,-0.127177,0.0285661,0.277148,-0.230154,0.293889,-0.0289529,-0.696037,0.0959001,-0.227053,0.331516,-0.0074268,-0.288179,0.434246,-0.133764,0.0854554,0.639219,-0.433972,0.431999,0.114018,-0.38196,-0.673687,0.32736,0.685578,-0.204321,0.612131,0.5843,
0.0313239,-0.127564,-0.742011,-1.09121,-0.375934,0.875637,1.20203,-0.4168,0.292855,0.378901,-0.528396,0.623841,0.336709,-0.335819,-0.018214,-0.0966651,0.112841,-0.249187,-0.306941,0.628688,0.423557,-0.149844,0.863636,-0.444369,-0.536779,-0.813796,1.16232,-0.149051,-0.492989,-0.0207852,0.158412,1.2478,-0.803767,0.219563,-0.840983,-0.662215,0.695608,0.154969,0.233354,-0.569771,0.351193,0.512157,-0.208262,0.122614,-0.271823,-1.00241,0.0760161,0.236647,-0.188231,0.631972,0.0826691,0.150532,-0.50368,-0.420652,-0.279001,-0.0906146,0.00295791,0.679785,-0.486426,-0.138632,0.342682,1.28676,0.660864,0.703994,
0.0516467,-0.0154302,-0.0822628,-0.0309615,0.037279,-0.0915811,0.0513354,-0.654567,0.393923,-0.785727,0.412658,0.107486,-0.0563331,0.614793,0.137273,0.434264,-0.239394,0.664861,-0.416059,0.0467215,-0.481618,-0.582507,0.145204,0.00318934,-0.704457,0.408102,-0.166996,0.333665,0.440246,0.569849,0.888772,0.512558,0.220466,0.65666,-0.250145,-0.179124,0.292763,-0.00665674,-0.280066,0.479972,-0.171032,0.860729,-0.850756,-0.73432,0.33418,-0.236084,0.257238,0.107441,0.312226,0.743406,0.154577,-0.491688,-0.396143,-0.932892,-0.00446003,-0.0497811,0.0508114,0.836273,0.466928,-0.784838,1.05625,0.397555,-1.3632,0.287961,
-0.514592,0.209838,-0.220788,1.06846,-0.388342,1.1225,-0.560099,0.547685,-0.0264247,0.320297,0.862893,-0.549748,-0.176848,-1.06779,-0.495814,0.458296,-0.800693,-0.774992,0.41637,0.437626,-0.0824731,-0.157132,0.303413,0.285597,0.691761,0.314299,0.181179,0.227066,0.560337,0.12974,0.414755,-0.621286,0.902188,-0.29294,0.509824,-0.208207,0.12484,0.263968,0.556605,0.53563,0.239102,-0.21547,0.0408047,-0.804219,0.195049,-0.0866872,-0.0981157,-0.490189,0.24196,0.159811,-0.551681,0.383869,-0.208734,0.195565,-0.584833,1.55541,-1.03008,0.707018,0.342907,-0.377125,0.537756,-1.22109,0.292547,-0.273302,
-0.230974,-0.0398479,-1.23018,0.491672,-0.139933,1.01971,-0.118027,0.708448,0.529646,1.20601,0.171457,0.317495,0.135689,0.642579,-0.455739,-0.150152,0.0173554,-0.531273,0.0383085,-0.127183,-0.906244,0.0389801,-0.860196,0.662149,-0.90498,-0.0865325,0.829504,0.409935,0.164966,-0.649409,-0.478171,-0.787031,0.90699,0.4911,-1.04232,-0.620816,-0.353829,-0.331007,-0.440546,0.256305,0.117516,-0.156877,-0.193876,0.0639818,0.760767,0.109779,1.04188,-0.350798,0.756316,-0.382467,-0.794482,-0.467854,-0.296292,-0.0164432,1.28747,-0.679166,0.215058,0.265428,0.260814,-0.0529796,-0.255904,0.102667,-0.462489,-0.123489,
0.0801653,0.36325,0.0683258,0.727857,-0.189929,-0.100143,-0.160016,-0.619259,0.410103,0.0195486,0.386919,-0.334705,-0.123754,0.360038,-0.939022,0.255943,-0.433078,-0.103976,-0.11462,0.341853,-0.441548,-0.675097,0.468508,-0.392533,0.274101,0.991028,0.214712,0.146066,0.615682,0.0176241,0.70625,-0.205296,-0.363267,-0.244919,-0.0706269,-0.137372,-0.311592,0.527766,-0.696425,0.509664,-0.417752,0.0741315,0.792858,-0.661689,0.685748,-0.499672,-0.0393429,-0.365254,-0.0903588,-0.209552,-0.301634,0.60208,-0.708048,-0.213103,0.169054,0.3528,-0.269263,0.289714,-0.18551,-0.0193396,-0.0348317,-0.548533,-0.551762,-0.0090954,
-0.185526,-0.390904,-0.196976,0.233812,0.333497,-0.711168,-0.412116,-0.512213,-0.342929,-0.388058,0.0578294,-0.267487,0.416546,-0.763805,-0.0332034,-0.15989,-0.856837,-0.476845,-0.376335,-0.332102,0.127706,-0.321175,-0.21616,-0.581348,0.889561,0.97398,0.0503453,0.131522,-0.010689,0.0250494,0.331341,0.748992,-0.9225,-0.658224,0.135876,0.301068,0.658736,0.337317,-0.0405872,-0.181194,0.288767,-0.139336,0.0930402,0.356773,-0.637253,0.305375,0.4222,0.329858,-1.1668,0.241625,0.387546,0.175939,-0.622727,-0.367553,0.242982,-0.196911,-0.423787,0.019556,-1.15583,0.306665,-0.0612249,0.430268,-0.630217,-0.179388,
-0.600527,-0.300884,-0.184935,-0.595626,-0.131731,0.275955,0.402838,1.49211,0.180787,0.240153,0.159311,0.097102,-0.185355,-0.868995,0.064292,-0.517419,-0.605218,-0.182457,-0.68619,0.27901,0.290587,-0.107209,0.861117,-0.348019,-0.0754745,0.144764,0.600527,-0.0534282,-1.06025,-0.435009,0.253077,0.060238,0.862405,1.17517,0.656492,-0.561272,-0.463727,-0.317727,0.3699,0.298812,0.0940142,-0.152818,-0.238357,0.339281,-1.02517,0.0850071,0.301534,0.271262,-1.47567,-0.500775,-0.127817,0.0486206,-0.359964,-0.00183418,-0.083456,0.0952682,-0.737769,0.0365362,-0.26682,0.287819,1.10842,-0.0696326,0.156314,-0.426496,
-0.426852,-0.125011,-0.532634,0.41795,0.38577,-0.344529,0.488925,-0.37471,-0.368111,-0.0855579,-1.03665,-0.0304975,0.510978,-0.373694,0.311251,0.213294,0.431297,0.0745378,0.303692,-0.199917,0.795605,0.361792,0.0844794,0.781421,-0.424599,-0.261061,-0.767336,-0.167533,-0.324964,0.332268,0.0356971,-0.038283,0.0926589,-0.0937641,0.0974807,0.506569,0.0287718,-0.519109,0.893544,-0.672411,0.544301,-0.0653041,0.350673,0.431015,0.0361993,-0.463627,-0.366201,0.298632,0.98603,1.2341,0.359086,-0.171335,0.476437,-0.0311831,-0.96289,0.304211,0.341644,-0.412248,-0.706782,0.467474,-0.316084,0.0912569,0.742183,-0.0470827,
-0.293404,-0.427995,-0.603388,-0.557907,0.572882,-0.506981,0.0860554,-0.406093,0.337235,-0.0889993,0.457935,0.105725,0.948228,-0.642674,0.350152,0.418418,-0.128383,-0.305385,0.0335224,-0.274568,-0.166826,0.335173,-0.0461496,0.100643,0.596012,0.509439,-0.62134,0.244848,0.403698,0.663806,0.122946,0.431839,-0.262269,-0.354606,0.33194,0.520972,0.546874,-0.0225634,0.223826,-0.243111,0.672115,0.0369177,0.0605815,0.413882,-0.306668,-0.00247614,0.10252,0.636862,0.271597,0.800931,-0.592212,0.309635,-0.321839,-0.409258,-0.13949,0.446308,0.45904,0.728863,-0.505459,0.370147,-0.785612,0.390977,-0.136497,0.830301,
0.212674,0.75356,-0.431668,0.375389,0.856989,-1.40036,1.62987,-1.13526,-0.112232,0.407905,0.0777642,0.259403,-0.0831722,-0.186496,0.488392,-1.02159,0.839705,-0.147469,0.932687,-0.145226,0.305283,-0.426176,0.536903,0.895904,-0.303601,-0.203164,0.132234,-1.14349,-0.749886,0.0299554,0.0581697,0.0740259,-0.297574,0.0185908,0.401303,0.737244,0.390178,-0.472752,0.713303,-1.12235,-0.200524,1.11072,0.527425,-0.864752,0.545207,-0.133651,-0.356428,0.838556,0.817314,0.103776,0.760925,-0.0518586,-0.772676,-0.494763,-1.17717,0.0886951,-0.495061,-0.77753,-0.83438,0.111497,-0.353682,0.298331,0.614549,0.472239,
-0.0729873,-0.220089,0.0494938,0.147538,0.252306,0.108708,0.712893,-0.0613003,-0.891445,-0.959945,-1.35656,0.47549,-0.234622,-0.269522,0.779923,0.17571,-0.0425027,-0.297714,-0.0513918,-0.152751,0.287541,-0.0867667,0.0607781,-0.31289,0.0274629,-0.613277,-0.280058,-0.460905,-0.148939,0.728258,0.287586,0.559581,-0.493653,0.550307,0.160036,-1.03416,0.137163,-0.503707,-0.278016,0.111217,1.22509,-0.275319,-0.480868,-0.109481,-0.224223,0.469814,-0.0239493,0.728553,-0.536664,0.10523,0.355639,-0.515831,0.0254892,-0.81052,0.802604,0.0980009,0.565631,0.646981,0.594386,-1.19771,-0.0370348,0.81723,-1.12155,0.0426627,
0.510051,0.669116,0.43876,0.419159,0.6487,-1.54956,-0.515547,-0.39016,0.0382276,0.0178647,0.852219,0.95222,1.05179,0.369441,-0.296565,-0.70912,-0.124744,-0.115094,0.144246,-0.00292919,-1.21444,0.394237,0.0967564,0.462837,0.235643,0.238031,-0.502966,1.16229,-0.64946,0.373259,0.494154,0.00605556,-0.234269,-0.145215,0.536205,0.301246,-0.110693,-0.22237,-0.123041,0.271187,-1.03388,0.625962,0.0769393,-0.752507,0.936644,0.88311,-0.236855,0.595046,-0.221589,-0.969652,1.26091,-0.304359,-0.150218,-0.613475,1.11839,-0.256367,-0.153606,0.765862,-0.566938,-0.689485,0.0682029,-0.0259997,0.288247,0.131322,
0.197069,-0.599336,0.0842786,-0.101971,0.537536,-0.217321,0.614607,-0.00406985,-0.777404,-0.337585,-0.475973,0.324139,0.433571,-0.32628,0.817218,0.112091,-0.256278,-0.149905,0.45606,-0.0336866,0.843691,0.592238,0.183676,-0.131339,0.125233,0.213614,0.0149077,0.242632,-0.738054,0.705675,0.366086,0.337743,-0.171449,-0.429468,0.0710236,0.241741,0.386492,-0.248961,-0.096977,-0.677215,0.299306,0.0525891,-0.212476,0.90197,0.450763,-0.131614,-0.0936512,-0.160821,-0.105489,0.404888,0.147937,-0.227302,0.0553048,0.249476,0.219107,0.562448,-0.100289,0.45241,-0.353113,-0.584705,-0.269389,0.0368382,0.553376,-0.448644,
-0.599767,0.858103,-0.128159,0.718312,0.220548,-0.712412,-0.453589,-0.454594,0.732483,-0.651406,-0.330266,-0.379794,0.564508,0.843329,-0.299489,-0.140266,-0.400899,-0.411675,0.832153,-0.106135,0.705147,0.0528286,-0.400298,0.0132097,0.437232,0.276395,-0.456959,0.803145,0.0284061,0.456951,0.0516194,-0.829359,-0.42132,0.151385,0.728325,-0.443847,-0.428739,-0.484066,0.513854,0.125677,-0.767174,-0.756964,0.167856,0.476641,0.720247,0.494257,0.219752,0.0467972,0.426014,0.250381,-0.837759,0.508864,0.47991,-0.344273,-0.442106,-0.306699,0.320298,0.214476,-0.506317,-0.356615,-0.767335,-0.0565961,0.0315786,0.00410011,
-0.684646,0.892956,-0.918565,-0.850618,-0.765152,1.28129,-0.250192,0.321308,-0.445068,0.798616,-1.44303,-0.675773,0.328579,-0.0429756,0.988874,-1.03235,0.907676,0.0550748,0.116364,-0.154193,1.44832,0.426496,-0.512218,0.967475,-1.07245,-0.367506,0.629571,0.110494,-0.984141,0.715133,-1.45875,-1.6986,0.396969,0.170457,0.73442,-0.280514,0.0589757,-0.898065,1.36571,0.0994041,-0.362297,-0.420738,0.560157,-0.204802,-0.52246,-0.284932,-1.86429,-1.06371,0.383137,-0.153778,0.648215,0.0177902,1.02651,1.24067,-0.263514,1.36634,0.982448,0.665705,-0.380917,0.339411,-0.0373797,-0.0545889,0.0735907,-0.794316,
0.0545826,0.611163,0.120596,0.25327,-0.610691,0.0882822,-0.549977,0.528409,0.712003,-0.443312,0.028384,0.441741,-0.0810048,0.692518,-0.191783,0.0478862,-0.142164,-0.306589,-0.67912,0.349566,-0.378891,0.156269,0.641321,-0.379043,-0.36169,0.172543,0.713888,0.799184,0.278433,1.20175,0.475163,-0.248747,0.557868,0.180513,-0.166317,-0.904038,0.162152,-0.557793,0.354116,1.26526,-0.432377,-0.187674,-1.00577,0.266909,0.985627,-0.19646,0.634267,-0.0896225,-1.12877,-0.290487,0.581958,-0.34414,0.421621,0.0678765,0.677694,-0.920978,0.649519,-0.665068,0.403591,-0.518165,0.903508,0.64889,-1.0678,0.126897,
-0.418552,-0.17401,-0.410299,0.480719,-0.300488,0.359023,0.504457,-0.0756727,0.225288,0.514873,-0.177008,0.261423,-0.138507,-0.294012,0.0997314,0.163594,-0.17471,-0.107394,-0.148075,0.417722,-0.0631797,0.255215,1.11084,0.471169,0.150838,0.0068136,-0.59231,-0.292677,-0.2479,0.107693,0.403133,-0.167662,0.119326,-0.337656,-0.0241635,0.0390028,-0.0141722,0.23344,0.308109,-0.32371,0.229752,0.280929,0.273522,-0.407671,0.442354,-0.605354,-0.400738,-0.0785663,0.439521,-0.383987,0.0261923,0.255884,0.000467146,0.227663,-0.526411,0.793079,-0.599359,-0.160406,-0.22184,0.189325,0.170102,-0.368141,0.786896,0.00356615,
-0.767665,0.0374306,-2.08135,0.0349376,-0.950103,-0.0356852,0.155377,-0.183405,0.884513,1.57724,0.603784,-0.754329,1.15413,-0.677956,0.6366,-0.235511,0.480541,-1.33464,-1.01619,-0.254129,0.18239,-0.81795,0.193198,0.360423,-0.220637,0.351693,-0.28468,0.0171893,-0.678467,-0.284244,-0.762198,-0.693586,0.287706,-1.31838,-0.977848,0.18641,0.218276,0.129538,1.68312,-0.221338,-0.329006,-0.85922,0.639832,-0.236083,-0.636237,0.598762,1.02341,0.265622,-0.19511,0.422218,0.106625,1.09223,-0.121885,0.300379,-0.583866,0.435605,-0.0231886,-0.244251,-0.872423,0.341131,0.712407,0.471957,-0.407139,-1.21539,
-1.57979,0.947297,1.56178,1.2222,-0.849894,-0.132119,-1.46595,0.488273,1.41987,-1.66623,-0.510745,0.0582892,-0.420994,0.240099,0.193604,1.16192,-1.52555,-0.644296,0.23933,0.941661,-0.621871,-0.635239,-0.988594,0.0334753,0.227683,1.00868,0.962737,-0.115965,1.31743,-0.161521,-0.979868,0.160852,-0.751414,-1.33293,0.286411,-0.797757,-0.500551,0.346982,0.127491,1.59653,0.58514,0.877837,0.0778194,0.134934,-0.4547,0.572824,-0.167906,-1.36649,0.408386,0.929651,-1.01206,-0.542979,-0.607611,-0.194182,0.270896,-0.296469,0.728264,0.627711,-0.705298,-0.279783,-0.00308147,-0.661416,0.797628,0.543794,
-0.0252261,0.239532,-0.029686,0.406899,-0.914625,-0.560785,0.660717,0.248196,-0.503106,0.70202,0.285634,0.151432,0.578186,0.0709039,-0.00745496,-0.499372,0.362181,-1.02003,0.132499,0.285075,0.382995,0.0206794,1.25599,-0.444639,0.940191,-0.103113,-1.07478,0.325757,-0.589351,-0.066843,0.245774,-0.0279359,-0.29038,-1.17564,-0.138526,0.110851,-0.46946,0.338497,-0.106339,-0.277958,0.208762,0.306763,0.347905,-0.134078,0.691134,-0.43624,-0.659086,-0.168938,-0.249345,-1.01697,0.0387768,0.113014,-0.36916,-0.77189,0.241835,0.299135,-0.180646,0.513275,-0.0815028,-0.126265,0.180167,-0.917381,1.11046,-0.4535,
-0.170154,-0.273449,-0.11661,-1.02939,-0.0159261,0.338349,1.06337,0.383086,0.132604,0.679228,-0.53749,1.22392,0.390132,0.414747,0.720932,0.136009,0.495997,0.179301,1.03365,0.0646269,0.0162169,0.782917,0.871235,0.153606,-0.467628,-1.30882,-0.0850757,-0.192751,-0.995544,-0.353533,-0.335074,-0.297499,0.5627,0.422862,-0.535991,0.472279,-0.784886,-0.226262,-0.174427,0.170809,0.134919,0.189215,-0.372458,0.064742,0.202617,0.435677,-0.486593,-0.852315,0.594374,-0.598616,-0.547699,-0.178174,0.852173,-0.0373462,0.207974,0.145758,0.723293,0.915061,0.366247,-0.279141,-0.729027,-0.156123,0.59588,-0.180982,
-0.443151,-0.974623,-0.450973,-0.154243,-0.696283,-0.159436,0.625915,-0.255733,-0.517933,-0.593429,-0.234648,-1.03672,-0.134287,-0.0520675,0.0930972,-0.694145,0.815754,0.748824,-0.838739,-0.451485,0.754971,-0.411528,-0.148208,-0.0887032,0.436355,0.255669,-0.214761,-0.906824,-0.2552,-0.291745,-0.756477,0.0491248,0.14212,-0.0818763,-0.00165694,0.359432,-0.276274,0.474348,-0.576785,-0.246519,0.767715,0.30286,0.684517,0.0421662,-0.602864,-0.862729,-0.520447,-1.2279,0.568374,-0.39776,-0.033553,1.02273,-0.375625,-0.0380925,-0.377043,-0.101084,-0.0206123,0.397362,0.496077,0.650408,-1.43707,-0.76062,0.258901,-0.507275,
-0.692057,0.420171,0.113408,0.392016,-0.597812,0.249362,0.915699,0.382745,0.0532789,0.164791,-0.46987,-0.527828,-0.484288,-0.726137,0.616231,-0.822462,-0.480892,-0.20893,-0.587794,0.519569,0.498151,-0.177516,1.18119,0.755896,-0.477532,0.225182,-0.304723,-1.09981,-0.521207,-0.485767,0.0805746,0.155457,0.601414,0.337435,0.244729,0.20859,-0.200492,-0.224993,0.887615,-0.31488,0.189846,0.573377,0.368225,-0.64434,-0.314454,0.0486402,-0.463142,0.334225,-0.213266,-0.5716,1.07201,-0.0861705,-0.291572,-0.262691,-0.78007,0.237255,-0.0223423,-0.524028,-0.671558,0.0290534,0.802639,-0.0894175,0.605539,-0.304689,
-0.569059,0.750242,0.923738,-0.401649,0.114523,0.121912,-0.651621,0.858183,0.508311,-0.737611,0.039399,-0.800446,-1.60006,0.691498,0.568164,0.221493,-0.457847,-0.167733,-0.260893,0.204426,-0.492198,-0.157348,-0.0840223,-0.402478,1.08177,0.289324,-0.771328,-0.267057,0.401618,0.155268,-0.506757,0.176518,-0.0178439,-0.0534024,-0.27249,-0.0265482,-0.0375211,0.648405,-0.792934,0.148876,0.703084,0.841246,-0.0921077,-0.733235,-0.38884,0.109426,-0.53988,-0.104582,-0.931292,0.0739116,0.130989,-0.4459,0.0250952,-0.148866,0.14667,0.189113,-0.913237,-0.437445,1.02959,0.118749,1.62084,0.556693,-0.951136,1.36098,
-0.293733,-0.107697,0.341937,-0.280437,-0.47514,0.335477,-0.671074,0.122005,0.473901,0.122667,-0.47351,-0.0412616,-0.153877,0.316062,-0.321033,0.382921,-0.246917,0.366934,-0.357762,0.380342,-0.460054,-0.308564,-0.613328,-0.269229,0.518755,-0.316481,-0.052126,0.677477,0.698893,-1.25648,-0.66141,-0.176475,-0.18566,0.289037,0.355015,-0.0572514,-0.31087,0.583571,-0.437743,0.641789,0.498328,-0.690932,0.228454,0.0127775,-0.598089,0.246928,-0.535606,-0.558588,0.0875164,0.430268,-0.362681,0.00707627,0.419407,0.490175,-0.197309,0.00524667,0.589183,-0.24848,0.320192,0.393763,0.199049,-0.247372,0.12681,0.603833,
-0.291307,-0.490154,0.358173,-0.484314,0.611629,-0.0927555,0.0518273,-0.856402,0.36288,-1.02736,-1.16476,-0.196314,-0.209479,0.0589639,0.712318,-0.316125,-0.287567,0.331582,0.0872201,-0.19041,1.04723,-0.47016,0.271061,0.104282,-0.361199,-0.430899,0.553927,-0.846527,-0.131736,0.28986,-0.471553,0.310355,-0.290166,1.17452,0.319192,0.080071,0.248246,-0.0350007,0.601121,-0.557347,0.285623,0.109307,-0.174557,0.20363,-0.747809,0.328419,0.703788,0.731242,0.534754,0.958697,0.43649,0.463668,-0.185701,-0.0701391,-0.790258,0.421492,0.154904,0.0869826,0.0546616,-0.682518,-0.321414,0.0458768,-0.371947,-0.0790145,
-1.14186,-0.0473577,0.0170307,0.443416,-0.321268,-0.0348227,-0.514014,-1.18009,0.49996,-0.386385,-0.277965,0.372239,0.310132,-0.128458,0.885948,0.505429,-0.462879,-0.0133167,-0.369859,0.855001,-0.157686,-0.0807203,0.0546268,0.18907,0.451442,-0.180996,-0.830423,0.355491,0.276128,-0.144414,-0.390471,0.300264,-0.263038,-0.423285,0.318549,0.454071,0.261331,0.944571,-0.203298,0.325299,0.959358,-0.321561,0.0958998,-0.0387011,-0.761947,-0.338815,-0.865927,-0.0257849,0.196725,0.56304,0.49929,-0.112255,0.274764,0.759458,-0.541534,0.979629,-0.0508818,0.0357001,-0.380896,0.496454,0.794773,0.0547382,1.25169,0.617751,
-0.462304,-0.201248,0.419648,0.129766,-0.185561,-0.136107,0.288412,-1.04941,-0.670116,-0.321765,-0.433528,-1.05782,0.757876,-0.384528,0.182373,-0.580571,-0.960738,-0.940405,0.837673,0.40221,-0.736076,0.19085,0.725118,0.123221,1.04763,1.09405,-0.175966,-0.544433,-0.646886,-0.889168,0.0993225,0.207144,-1.13151,-0.656622,0.700053,0.517585,0.584792,0.32538,-0.356767,-0.0468559,0.661198,-0.689923,0.231332,0.0881868,-0.114401,0.252691,0.145856,-0.741822,-0.277178,0.51325,-0.0428106,0.711334,0.342688,0.311453,0.952819,-0.340211,0.0475372,-0.0889171,-0.724527,0.0256445,-0.0505249,-0.704087,0.218669,0.231972,
0.0132645,-0.220766,0.0695351,0.063922,0.204791,-0.212069,-0.42612,-0.49354,-0.30978,0.195069,0.379942,0.132997,0.285972,0.194234,0.286546,0.151179,-0.0717213,0.359438,-0.144415,-0.123582,-0.140024,-0.584561,-0.0794358,-0.324401,0.152098,0.177154,-0.103066,0.37178,0.626215,0.199787,-0.0580553,0.505741,-0.403744,0.280065,0.0231041,0.469523,0.0802819,0.592165,-0.606143,0.174254,0.419358,0.320357,0.180267,-0.504736,-0.390435,-0.2333,-0.00478393,-0.22789,-0.637675,0.0557967,-0.0411856,-0.694205,-0.774473,-0.237297,0.691629,-0.407034,-0.0645141,1.10181,0.139803,-0.19696,-0.291816,-0.259882,-0.426957,-0.0493291,
0.180781,-0.0826105,0.614569,0.469326,-0.275817,-0.611691,-0.899084,-0.00362985,-0.55157,-0.277707,0.733242,0.0375334,0.609149,0.0466424,-0.469994,-0.421314,-0.435332,-0.177142,-0.190301,-0.211527,-0.630459,0.285545,0.0645441,-0.555739,0.890669,0.86513,-0.100525,0.953989,0.0734859,-0.225753,0.404652,-0.0622866,-0.39268,-0.120676,0.0249484,0.219807,0.160161,0.375503,0.0268779,0.577247,-0.575968,0.206125,0.832982,0.0560538,0.123445,-0.00393792,-0.228219,-0.550371,-1.28609,-1.02798,0.397009,-0.0167294,-0.573686,-0.948587,1.31043,-1.14009,-0.271412,1.27478,-0.253329,0.153985,-0.0532746,-1.00685,-0.447476,-0.641879,
0.258081,-0.266202,-0.193846,0.666402,-0.0137375,-0.4542,-0.867623,-0.72973,0.412165,-0.114736,0.457888,-0.631657,0.154139,0.415087,-0.0826225,1.17054,-0.989046,-0.101187,0.398333,-0.183137,0.0188771,-0.403005,-0.636578,0.378968,0.738209,0.975009,-0.48206,0.330147,0.980886,-0.838679,-0.0635628,-0.174281,-0.614362,-0.618564,0.121935,1.06268,-0.326563,0.474157,-0.644134,-0.191184,0.127484,0.0130856,0.814113,-0.921571,0.828725,-0.293972,-0.361745,-0.212778,0.831117,0.894238,-0.362445,-0.435915,-0.183651,0.22071,0.280816,0.823747,-0.56661,-0.438348,0.581475,-0.338101,-0.536256,-0.630296,0.285283,0.294529,
0.787549,0.147505,0.908754,-0.707174,-0.208895,0.153621,-0.926963,-0.731493,-0.1882,-0.946571,-0.400561,-1.08592,-0.0273464,0.0646775,-0.648149,0.431512,-0.679522,0.416677,-0.757824,-0.185251,-0.0707835,-0.494982,-0.134288,-0.177152,1.09059,0.165915,0.768181,1.02399,0.292931,0.0834798,0.0474395,0.387621,-0.85689,-0.433758,0.533289,-0.117617,0.774068,0.464842,-0.292696,-0.0847891,-0.533748,-0.191685,0.317403,1.08359,-0.166539,0.067824,-0.394677,-1.11435,0.384818,0.418626,-1.28708,1.33884,0.0688578,0.739759,0.557378,-0.336803,0.810062,0.184032,0.924882,0.292373,0.0745291,-0.0647132,0.302333,-0.282835,
-0.244368,-0.755653,-0.421096,0.387466,-0.401585,-0.975746,0.981343,0.0744945,-0.355651,0.380221,-0.136244,-0.479752,0.619697,-0.310914,-0.472941,0.281975,-0.600126,0.197744,-0.156537,0.222295,0.618049,-0.450045,0.445053,-0.704891,0.686231,0.948931,0.383741,0.00382918,0.258081,0.0586272,0.970149,-0.325256,-0.300531,-1.15213,1.17594,-0.0311286,-0.648607,0.872683,-0.384905,-0.364958,-0.789615,-0.243905,0.962401,0.0113567,-0.451152,-0.370293,-0.626835,-0.431891,-1.06487,-1.02542,-0.284899,1.48175,-0.814161,-0.256723,0.493997,0.477658,-1.04213,1.19666,-0.525026,0.724059,-0.676156,-1.23365,0.719572,-1.04615,
-0.286973,-0.403298,0.394215,-0.0247736,0.20237,0.34782,0.146957,-0.209458,-0.329364,-0.259185,-0.683587,0.321706,-0.858138,-0.0100205,0.302468,0.225117,0.769771,0.525724,0.0826241,-0.121764,0.749406,-0.0473015,-0.021383,-0.0966753,-0.80327,-0.653391,-0.514943,-0.191753,0.0539385,0.173241,0.415226,-0.0458056,0.459502,0.633825,0.191719,-0.0699758,0.490838,0.0285485,0.223002,-0.00199828,0.221712,0.36008,-0.350483,-0.277872,-0.291258,-0.109972,-0.481317,-0.0139241,0.0121222,0.430484,0.391403,-0.570039,0.255082,0.0134022,-0.438036,0.393668,-0.39961,-0.0149716,0.4713,0.0601385,0.726717,-0.117169,-0.166874,0.634994,
0.248172,0.630644,-0.211648,-0.621932,0.547726,-0.736526,0.353258,-0.770951,-0.238828,-0.0748022,-0.0272019,-0.423904,0.696735,0.546057,-0.712453,-0.851817,0.887104,0.440433,-0.259205,-1.02503,0.346576,-0.0275555,-0.272599,-0.460761,-0.00404801,0.036381,-0.259618,0.607882,-0.464766,0.94193,0.518639,0.28847,0.637188,1.00308,0.243561,0.0059536,-0.359917,-1.10729,0.569917,0.00753899,-1.04592,0.497591,-0.302547,-0.0643125,0.644958,-0.213436,0.364087,0.211914,-0.0464242,0.355759,-0.233421,-0.102056,-0.135958,-1.55274,-0.0823936,-0.386962,-0.249912,0.740123,-0.366178,-0.269747,0.0264405,0.809864,-0.692708,-0.480569,
-1.15961,-0.137542,0.732624,-0.169831,0.0836795,-0.285464,-0.761029,0.116416,0.106461,-0.716571,-0.360377,0.383904,0.34154,0.319239,1.23067,0.0779944,-0.452762,-0.0428088,1.09946,0.858231,-0.138244,0.307397,-0.772168,0.614679,-0.164636,0.204389,0.465584,0.0487761,0.172422,-0.104145,-0.979586,0.382032,-0.145066,0.45084,-0.1966,-0.328817,-0.021837,0.444193,0.545588,0.28755,0.105859,-0.82247,-0.773269,-0.344,0.0342119,-0.125707,0.159828,-0.677005,-1.2596,-0.47063,-0.0132733,-0.931489,0.117411,0.824981,0.555212,-2.53742,-0.083899,-0.00269712,-0.706757,0.206426,-0.773485,0.31233,0.224567,0.164089,
# W(h2->out) rows=65 cols=26
-0.835298,0.693918,-0.29158,-0.252313,0.550735,-2.10305,0.0864551,-0.718413,-1.64078,-0.733948,-0.494679,-1.05128,0.183262,-0.854537,0.177044,-0.875132,-0.19176,-0.141126,0.0529099,3.46975,-0.744318,2.10348,3.19388,-0.548367,0.53688,0.10839,
-0.301296,1.17866,-0.987821,-1.97018,2.07215,2.52795,1.44716,0.626575,-1.71205,1.01371,-1.35898,-0.988118,0.13684,-2.56228,0.551953,-1.0069,1.25191,-0.644926,0.422162,-0.733846,-0.820947,-0.432563,0.0622056,-1.48437,1.86591,1.84406,
-0.205037,-2.48164,0.38144,-2.47905,-1.57786,-0.661261,-2.64241,2.75463,1.61558,0.167985,2.2178,-1.22194,0.63918,0.91518,2.62889,-0.985152,-1.04749,0.848291,-1.89327,1.42759,0.662642,0.741543,0.115793,2.1449,-1.13421,-0.976858,
0.674832,0.931308,-0.691069,3.48527,-1.2748,-1.38351,0.761144,1.45333,-0.733695,0.58151,-0.00471471,-1.29948,1.19677,-0.121166,1.21317,-0.472984,0.503197,-0.329647,-3.51563,0.440744,-0.0473083,0.111159,1.00532,-0.307402,-1.71183,-0.34949,
0.463627,-0.211088,-0.529682,1.04107,-2.12419,-0.340409,-0.726593,1.33507,0.395565,0.422689,1.70401,-2.61311,0.151292,-1.43876,1.28984,1.78513,1.71903,-1.80556,-0.293797,-1.015,0.679859,-0.129894,0.43539,1.80355,-1.31891,-1.08325,
-0.861673,-0.255169,0.346032,1.64734,0.975368,2.29356,1.00216,1.96273,-0.0202765,0.336425,0.557303,-0.21971,-0.125152,-1.40665,0.53023,0.526626,-2.38446,1.23159,0.429606,-1.37945,-1.48562,-0.450931,-0.790867,-0.477681,-2.54783,0.740649,
-1.02956,2.35868,1.42934,-0.615257,1.35537,1.66286,1.1832,-3.22321,-0.00272291,0.617367,-2.44939,-0.821812,-0.709627,-1.22675,1.58073,0.73496,-2.35503,0.502315,1.45925,0.893633,0.819799,-1.52294,-0.616356,-0.77872,-0.196811,0.500138,
-0.297676,1.66363,0.141435,-1.24225,0.592903,-0.844266,-1.50269,1.80455,0.244304,1.61871,4.015,-1.05505,0.321719,-0.654133,-0.0114756,-0.695254,-1.07877,-0.239867,0.845221,-0.650615,0.104082,-0.806334,-0.437053,-0.930267,-1.58581,1.26015,
-0.236497,-0.329061,0.878064,0.711163,0.3803,-2.1401,0.447237,0.987024,0.66053,1.50048,1.03862,0.748138,1.60591,0.672532,1.21224,-3.16374,-1.46963,0.654014,0.667222,0.118262,-1.9357,-2.20179,-1.79271,0.979195,-0.878651,0.411255,
-1.41073,1.14657,0.38237,0.974647,2.93846,1.58109,-0.365433,-2.53529,-0.662171,-1.96283,-1.79203,-2.29896,-0.73419,-2.07486,0.418771,0.612829,1.44208,-1.66297,-0.445201,2.14322,0.991601,-0.504228,0.615002,3.22654,-0.414525,-0.000275951,
-0.256266,-0.65935,-0.355732,2.20264,-2.41746,-0.952602,-1.58074,1.14344,-0.628549,0.233406,0.551204,-0.259031,1.16302,0.8387,-0.165588,-0.955612,0.81486,-0.846276,-2.48786,2.18358,1.32116,-0.790733,0.913564,-0.233044,0.229788,0.722998,
-0.730928,0.145205,0.948948,0.954185,-1.36286,1.16722,-0.355745,-1.08091,1.14268,0.956415,-2.93646,0.271047,-1.7799,1.65347,-0.183759,0.512101,-0.0243324,2.01597,0.596799,1.27385,-2.11479,-0.60001,-1.23722,0.626786,-0.0946882,0.125886,
-0.807865,1.31583,-0.139302,0.602115,-0.936746,1.63903,-2.30142,0.460645,-1.17921,-0.415583,-0.2852,-1.79355,0.859729,2.01319,0.616917,0.106789,-1.28786,0.448466,-0.249624,-1.82998,-0.259034,2.401,1.32672,-0.727905,-0.270438,0.42307,
-0.38495,-2.5368,-1.09729,0.0609961,0.613874,0.641087,0.504167,-0.390362,-2.09951,0.0534447,1.02189,0.270332,1.16198,-0.714465,-2.19459,0.966361,0.425527,-2.40281,0.0889074,0.336794,1.10107,1.27769,0.979074,0.669011,1.72095,-0.237618,
0.492704,-0.550802,-0.49164,-0.244958,-0.355464,-0.39549,-0.296762,1.12975,0.775956,0.814678,1.05742,0.509121,-3.31091,2.30197,-2.78038,0.103425,0.180024,0.538115,-0.184431,1.02788,-1.33988,0.161838,-0.529933,0.631358,0.353519,0.0554417,
-0.862093,-2.49686,1.11739,-1.93141,3.48106,-1.18294,0.48839,-0.298935,0.653102,-0.936185,1.00163,0.120089,0.0383185,-0.333812,0.256651,-0.760797,1.5894,-0.242276,-0.254689,1.09306,0.581427,-0.40851,1.07213,0.200174,-1.81159,-0.385247,
-0.856053,0.561992,0.0526851,-0.115747,-0.50784,0.918174,-1.03526,-0.452961,1.06599,-0.303772,0.23194,-1.2643,-0.322677,-0.0464391,-0.0169591,-0.362968,-0.277279,-0.440886,-0.868559,-0.755817,-0.505086,-1.74634,-0.120717,0.859843,3.08142,3.61284,
0.380741,0.924115,-0.0635779,-0.880458,-1.20605,-0.786277,0.0285975,-0.0991383,2.69223,-1.54145,1.98359,-1.09688,-0.345522,1.24188,-0.585926,-0.222164,-0.54802,-0.539708,-0.748034,-1.52619,0.759364,1.44236,1.1413,0.338308,0.371236,-1.13385,
-2.92274,1.71197,1.35125,-1.13038,0.537692,-0.0757263,1.60216,0.751438,1.48617,-0.325993,2.35296,0.0946502,-0.0285427,0.546404,-2.52582,1.2567,-2.71378,1.28394,-1.40353,-0.00657281,0.43043,-1.10998,-0.294584,0.107221,1.05629,-2.03237,
0.41318,-0.696991,0.835534,0.77103,0.0308183,1.66967,-0.0517142,0.350425,1.1917,1.13716,-0.470323,0.837706,0.65552,-0.222767,-0.172381,-0.816836,-0.0417553,0.128456,-0.153715,-0.999728,0.394288,-2.15354,-1.25539,-0.0581156,-1.77009,0.327341,
-0.339284,-0.492235,-1.69686,0.0210023,-0.614723,-0.603421,-1.27395,3.12169,-1.79866,1.60877,0.843022,-1.35722,-1.14973,-0.367047,-1.35339,0.599093,2.30501,1.30466,-1.43615,-0.226327,-0.281659,-0.0776213,-0.200395,-0.435153,1.39457,2.34557,
-2.18483,-0.00756912,0.277655,1.29095,0.854443,0.937665,0.68711,-0.841665,0.688937,0.512978,-0.741785,-1.54106,-1.61496,0.51516,-1.16851,-0.373599,-0.897154,2.29506,-0.258722,1.41463,0.547657,0.372187,0.0689138,1.51487,0.730885,-2.6483,
0.309645,1.31821,-1.13702,0.652556,-0.976484,-0.0698449,0.401391,1.25815,-0.372367,-0.815377,-0.542183,-2.47176,0.361609,-0.573815,-0.106838,0.559492,0.54142,-0.794764,1.88714,2.47712,2.37853,0.0185516,-0.831078,-2.29517,-0.595642,-0.465519,
0.265186,-0.791097,1.64564,-0.657518,0.240203,-0.132662,0.312062,0.850606,1.31049,-1.28653,-0.255105,-0.360882,-4.19085,-1.10566,1.42484,1.73209,0.358785,0.301735,0.166681,-0.147272,-0.175845,1.09568,-1.17036,0.853507,-0.52034,0.192555,
0.338818,1.38805,-0.839584,-2.11807,-1.34198,-0.600727,-0.325498,0.0347829,-0.452665,0.686985,0.795581,0.929701,0.69548,1.09123,0.275889,0.662485,0.809471,0.434467,-2.13468,0.378765,1.67186,1.71049,0.855995,-2.78944,-1.89862,-0.223995,
1.63998,1.73569,-3.49578,2.11175,-1.04291,0.844185,-0.280647,-0.414499,-0.551121,-1.27419,0.0214467,-0.937645,0.743715,0.422278,0.97491,1.66157,-1.64935,0.860157,1.1284,-2.45103,0.821713,-2.66826,1.56774,-0.581412,0.503264,0.53868,
-1.27473,0.307684,-2.10778,0.878165,-1.74071,-0.564489,-2.33779,-0.155566,1.31236,0.954673,1.99547,-1.74036,-2.41914,1.16506,1.09065,-0.349466,1.58417,2.26656,0.140997,0.132475,1.4091,0.938505,-1.40291,-0.0723903,-2.08324,1.77993,
-1.42043,0.415043,2.57002,1.07784,0.159266,1.08927,-0.20133,-2.13018,-1.24243,-0.983509,0.478836,-1.93646,0.688662,0.33703,0.5591,-1.94498,-0.30409,-1.85512,1.04201,1.14064,1.57322,0.825919,0.370667,-0.764267,0.525259,0.204768,
0.241158,-1.13964,-1.06526,-1.09644,0.586478,-0.760448,1.33021,0.326124,-1.11237,-1.09856,1.56523,2.07688,0.171845,0.149188,1.49517,-0.954736,0.344411,1.12417,-1.01762,-1.06227,0.54799,1.03931,0.668806,1.08941,-2.41437,-1.36139,
1.54033,0.73807,1.47162,-1.03259,1.86199,-0.31383,0.206228,-1.47888,1.55905,-0.371117,-2.34896,0.00620494,0.282124,-0.471532,-0.397179,1.74596,-1.45017,1.05617,-1.22938,1.07389,-0.126131,-0.716728,-2.65461,-0.429279,1.30663,0.601463,
-0.471006,0.169288,1.25666,0.271594,-0.600182,2.84635,-1.58981,2.30197,-1.21004,-0.236547,0.999591,-1.45169,0.157309,0.306038,1.94772,-2.29866,-0.278226,-0.985984,-0.562961,-0.145062,-0.8293,0.575054,0.059381,0.616236,0.198611,-0.768814,
-0.995164,-1.03551,1.02315,1.82891,0.628211,0.422749,0.971221,-0.596809,0.711037,-0.809421,0.402215,-1.01755,0.0450865,1.58718,-0.38189,-1.29889,-1.63032,0.166798,1.56155,-0.912225,0.900359,0.0500962,-1.1403,1.60541,0.392546,-2.68799,
-0.696149,1.99184,-0.253968,-1.74073,1.22475,1.42424,-2.02379,-0.428225,0.912591,0.295038,2.42966,2.2625,-1.08298,1.56855,-1.37517,-0.37007,-1.77523,-1.35824,0.766947,1.28813,-0.937598,0.18591,-1.24407,-0.0827839,-0.486982,-0.159321,
2.34299,-0.202481,-1.59524,-1.634,-0.632807,1.04108,-2.61702,1.37652,-0.304317,1.22177,1.31891,0.262956,-0.227671,-0.539408,-0.383051,0.402202,-1.63429,-0.146491,0.603084,0.324861,-1.43829,0.0283167,-1.25894,3.98901,-1.24428,0.752941,
0.414572,-0.25308,-0.520267,-1.88051,0.1663,2.22489,-1.71318,2.93281,-0.389161,0.373179,0.0389688,-1.34356,1.01074,0.644079,-1.12367,0.364342,0.206247,-1.21838,-1.06467,0.962087,-0.00705104,1.56154,0.409479,-2.06938,-0.476352,0.873778,
-2.35534,0.0596285,0.0309061,-0.348629,-0.563603,0.46209,-1.31148,1.63811,-0.0617352,-0.151249,0.478575,0.586795,0.159578,0.0380158,-0.248074,1.45742,0.798888,0.906761,2.70476,-1.55352,-0.0191864,-0.302438,-0.230246,0.542516,-1.3639,-1.2207,
-0.239745,-0.271891,0.238147,0.523556,-0.424779,-0.765643,-0.591479,-1.56593,-1.16534,1.83225,-2.26566,-0.403529,-1.10899,1.55134,1.44215,-0.951192,0.757436,-0.956972,1.1461,-0.626186,0.731207,1.06511,2.77764,0.518578,-0.587191,-0.314927,
0.646663,0.785752,0.668201,1.19921,-1.38079,0.0211273,-0.232588,-1.26659,-0.687707,-0.67041,0.263422,-3.29102,0.813258,0.898395,2.14906,0.4047,-0.674983,0.181003,-2.13589,0.489243,0.925501,-0.0613971,0.216417,0.0572457,-0.20397,0.191634,
-0.563617,1.67674,-2.45965,0.0871299,0.634666,0.297388,-0.119634,0.485993,-0.451568,0.804027,-2.63885,-2.39401,0.799144,-0.98647,-0.5581,0.629831,0.211605,-0.427625,0.677601,0.0591496,-1.41675,2.07078,1.23627,0.48935,0.9656,0.968356,
0.999922,-1.37738,-1.79184,-0.0442465,0.762399,-1.07315,0.573389,0.682178,-0.797874,-0.40615,1.00154,0.138215,1.607,-0.293813,-2.92654,1.17308,-1.19144,-0.542044,1.51786,-0.597518,0.0203765,-2.70204,0.751683,2.39844,0.0745484,1.78545,
0.304252,-0.3796,-0.764945,1.29282,-1.20652,1.67405,-1.03168,0.534457,0.691253,1.23812,0.0206329,0.553478,-1.89962,-2.49212,1.19299,1.84202,0.549208,-0.670916,-1.44952,1.81324,1.5212,0.0654344,-2.33783,0.157491,-1.95748,0.526748,
-1.18305,-1.06433,-0.969792,-1.27251,0.43071,-2.10103,2.35211,0.369686,-1.07969,0.413845,1.28081,0.161639,-0.0844301,0.175658,0.326509,0.220785,0.148755,-0.6206,1.80652,0.704527,1.02841,-0.842483,-0.686441,-1.10186,0.584448,0.851427,
-0.879804,2.27898,0.0398103,-0.37693,0.181814,-0.83746,0.0619199,1.33325,-0.65766,-0.95594,1.09951,-1.29737,0.702586,-2.50425,-0.647097,0.490305,0.507015,-0.117962,1.37332,1.70842,0.659284,-0.778207,-0.213627,-1.43984,0.659486,-0.193149,
0.789859,-1.34356,-0.495566,0.00443811,1.29858,1.17062,1.72484,0.748611,0.0367407,-1.02376,0.94331,-1.80534,0.951422,1.77193,1.06047,-0.316065,-1.29229,-0.394038,0.328385,-0.848451,-2.0525,-0.760644,-1.32082,-0.0112624,0.141003,1.03144,
1.17835,-1.49354,0.582186,1.08954,-1.3947,0.0357025,-0.323648,-0.626326,-2.3581,-1.94659,-1.59403,-0.687958,1.04153,0.803176,0.0271819,-0.115715,-0.0286416,-1.50953,2.17437,-0.426549,2.18149,1.03282,0.999821,-0.195823,2.54789,-1.31323,
0.773101,-0.154264,0.56229,-0.428581,-0.698958,1.07105,-3.0403,-0.862043,-1.18695,0.110239,-2.01629,-1.6666,-0.946181,0.46756,1.02867,1.39576,1.73576,0.861125,2.09516,1.66589,-0.363609,-0.00964535,0.257645,0.710258,-0.233366,-1.2343,
0.596202,-1.67947,-0.436563,-3.29732,-0.671708,0.481171,1.03936,-0.573867,1.86336,1.71601,0.303567,-1.009,1.35434,-0.247967,-2.42389,0.41051,-0.765438,0.921687,-1.90932,3.84385,0.251247,0.687333,0.855038,-0.746935,0.314433,-1.06864,
0.414159,-2.37221,1.97336,-1.54173,-0.858883,0.128436,0.0147275,0.272184,0.363542,0.299692,-1.5219,0.276795,-0.832065,-1.00277,0.351152,-0.266105,2.23877,-0.651862,-1.34383,1.20387,1.60453,-0.340788,-0.5685,-2.1491,1.45761,2.60871,
-1.37653,1.15615,1.30972,0.161996,1.26601,-0.508799,1.34431,1.5155,-2.18748,-3.23063,1.5286,-1.39629,0.333289,-1.94362,2.04473,0.561431,0.612139,-0.163979,0.495512,-1.01461,-1.50358,1.31771,-0.134194,0.494583,-1.10115,0.502463,
-0.472819,0.619663,2.9076,-0.848111,-3.03346,-0.891589,1.73218,0.500019,0.193418,2.19645,0.529743,0.629664,-1.25821,0.636169,1.77697,1.44143,2.41051,-0.859118,-0.489379,-1.54484,-1.33867,-0.583095,-2.67706,-1.19766,0.905845,-0.957621,
0.811972,-0.872532,0.26143,3.04838,-0.36516,-0.586726,-0.415887,-2.66213,0.708344,-1.06577,-1.03503,1.73039,-1.35359,-1.1693,-0.128945,0.507392,1.54398,-0.986678,-0.917865,0.886858,0.459215,0.475839,-1.71407,0.308317,2.10238,0.129354,
1.65813,-0.558013,-0.39732,1.55448,-0.0843664,-0.590374,-1.16956,-1.10678,-1.49878,0.362093,0.833944,0.583006,1.54845,0.0334548,1.25527,-0.447706,0.467361,1.37006,0.207559,-1.84303,-1.1615,-1.79442,-0.00675795,0.36475,-1.33913,1.49557,
0.555087,0.031738,0.0173515,-1.17448,-0.262741,0.992768,0.921278,-0.78524,0.374327,-1.7333,0.849001,-1.91389,-2.0313,-0.671087,0.962972,1.45547,-0.42109,0.841997,1.99444,1.21872,-1.02797,0.788688,0.363182,-2.61924,0.15181,0.894473,
-0.12089,2.0333,-0.512324,-0.735653,1.40942,-0.818168,-1.20555,-3.23844,2.11502,-1.33072,-0.564428,1.31977,-0.0598469,-1.18429,-1.15574,-1.51933,2.70017,1.73445,-1.43109,1.83811,0.200484,1.10092,-0.781396,0.98107,-1.48616,0.647024,
-0.659036,0.906148,-1.2039,0.813659,0.677757,-0.841287,2.77524,1.64988,-1.68586,-1.86401,-1.15358,-0.30625,0.989178,-0.720184,0.37716,0.455888,-0.0863486,-1.0444,-0.407881,-1.79533,1.92262,0.530307,0.32231,-0.215834,0.798982,0.0291221,
0.227825,-1.16049,0.929246,-1.96776,2.15093,0.319955,-1.07762,-1.58262,0.699091,0.415589,0.648609,1.2355,2.06926,0.342117,0.41677,-0.902334,0.645075,-0.731637,1.301,-0.772984,-0.327103,0.224642,0.188567,-3.18005,-1.11802,1.03739,
1.09558,0.958318,-1.17789,0.428104,-3.38836,0.815853,-0.290168,-1.82424,2.17052,0.285376,-1.2918,-1.34205,-0.899798,-0.71445,1.23946,0.902353,0.855943,-0.763306,2.13111,0.613697,1.7874,1.67366,0.647531,-0.455008,-0.0442514,-3.35907,
-0.380432,0.55535,1.19474,1.42452,-1.14864,-0.214448,-1.49955,-1.36509,0.4792,-0.272812,-0.344864,0.80011,0.798254,1.58981,1.97848,-0.403191,-2.84864,0.419791,-0.0913631,1.24487,-0.968449,2.12857,1.21762,-1.39385,-0.871274,-1.83404,
1.04387,-1.52104,3.27407,-0.69567,-0.452836,-1.71896,-0.408871,-0.825481,-0.0649176,-1.38589,2.23345,1.3512,0.524959,0.433485,-0.20382,-0.605734,0.733589,2.08789,-0.384812,-0.855884,-1.17446,-0.0243368,-0.377684,-0.154755,0.389782,-1.42985,
-0.17354,-0.540024,0.427995,0.600693,-0.365687,-1.42443,1.0025,0.749754,-0.69092,-2.43889,0.317943,2.57671,-0.125606,0.790088,-1.40024,0.0375007,0.181248,2.28804,1.44017,-1.36585,-0.374523,-0.548712,0.141498,0.904863,-1.20098,-0.905967,
0.765327,0.355385,0.921403,-1.36919,0.378945,-2.48054,-0.37745,-0.0912334,-0.149476,-0.00155879,-1.11879,-1.08291,0.767768,-0.932995,-0.992649,-0.413297,0.857253,2.10363,2.29753,-1.561,0.00281806,0.581778,-0.632331,-0.756939,0.779507,2.08039,
0.564616,0.0548312,0.0915918,-0.934546,-0.933046,-1.57192,1.7159,0.404053,-0.915486,-0.295529,-0.0549668,-0.39529,-0.589876,-0.929406,2.11522,-1.56028,2.47034,-2.75654,1.14711,-1.1428,1.83809,-0.129362,-0.835348,0.231916,0.368618,2.27571,
-4.66464,1.31331,2.00627,-0.924533,1.75963,-1.21637,2.25862,-0.0811436,-1.1135,-0.0032969,-0.229046,-2.70716,-2.35441,0.657562,1.63843,2.00433,1.89565,-1.02873,-0.231369,-0.382298,-1.65909,0.323627,1.05271,2.02557,-0.436,-0.0105612,
0.527396,1.23581,0.238546,-1.47924,-0.461222,0.104785,0.42632,0.731055,-1.82855,-0.0897183,1.24167,0.842482,0.455263,-0.198999,0.28786,-3.8062,0.251464,-1.41299,0.879903,0.700678,0.253542,1.3349,-1.69246,0.65573,-0.0956239,1.04836,
0.774334,-0.981173,-0.410814,0.0609008,-0.721242,0.588406,-0.542836,0.109007,0.596935,0.535721,0.718063,0.476196,-0.235664,-0.368303,-0.553627,0.100179,0.131504,-0.343663,-0.465572,1.13142,-0.463925,-0.344044,-0.748454,0.992733,0.876911,-0.690886,
